#include "har_weights.h"

const float har_mean[6] = { 0.006122f, 0.007657f, 0.420426f, 0.001721f, 0.000208f, 0.001871f };
const float har_std[6]  = { 0.093822f, 0.132839f, 0.094053f, 0.050942f, 0.068757f, 0.043995f };
const float conv1d_kernel[144] = {
  0.107895f, 0.131932f, -0.160790f, -0.075788f, 0.022260f, -0.030613f, 0.116541f, -0.177856f,
  0.044973f, -0.119502f, -0.101289f, -0.071366f, -0.049006f, -0.091277f, -0.025553f, 0.073386f,
  0.077186f, -0.024722f, 0.086109f, -0.186784f, -0.066696f, -0.041035f, 0.006800f, 0.030966f,
  -0.172644f, 0.023567f, -0.146064f, 0.035741f, 0.057635f, 0.131222f, -0.088205f, 0.100658f,
  -0.161100f, 0.073909f, 0.002902f, 0.050806f, -0.105336f, 0.229566f, -0.032230f, -0.055028f,
  -0.010183f, 0.119802f, -0.113808f, -0.034309f, 0.010134f, 0.096439f, -0.023142f, -0.100615f,
  -0.116400f, 0.083041f, -0.167432f, 0.073657f, 0.168802f, -0.043198f, 0.137416f, -0.090352f,
  0.012720f, 0.005924f, 0.086161f, 0.043261f, -0.082771f, -0.019407f, -0.013912f, 0.078343f,
  -0.117317f, 0.177168f, -0.002033f, 0.027250f, 0.010104f, -0.060068f, 0.143025f, -0.107235f,
  -0.161173f, -0.040046f, -0.121875f, -0.022416f, -0.011400f, 0.101257f, 0.024685f, 0.098859f,
  -0.007347f, 0.007858f, -0.054624f, -0.021430f, 0.078012f, -0.041573f, -0.021266f, -0.017461f,
  -0.027007f, 0.043944f, -0.001598f, 0.161813f, -0.159682f, -0.015371f, -0.113227f, 0.094100f,
  -0.017098f, 0.097645f, -0.115940f, -0.010616f, 0.104194f, -0.087393f, -0.090287f, -0.026179f,
  -0.111805f, -0.032028f, 0.016063f, -0.033635f, -0.135039f, -0.002338f, -0.011836f, 0.039051f,
  -0.032357f, 0.088119f, 0.003833f, -0.069677f, -0.018241f, -0.006349f, -0.037795f, -0.042229f,
  -0.021236f, 0.141246f, -0.085803f, -0.031438f, -0.068403f, 0.018844f, -0.093186f, 0.157774f,
  -0.038272f, 0.080581f, -0.045012f, -0.051481f, -0.044983f, 0.084542f, 0.003729f, 0.005220f,
  -0.042258f, -0.017043f, 0.052387f, -0.017176f, 0.042370f, 0.203057f, 0.078222f, 0.014110f,
};
const float conv1d_bias[8] = { 0.005045f, -0.130657f, -0.052495f, -0.038170f, 0.007427f, -0.026307f, -0.059100f, 0.037491f };
const float conv1d_1_kernel[384] = {
0.071957f,0.089455f,-0.099820f,-0.018211f,0.063157f,0.015502f,-0.064342f,0.067551f,
0.022284f,0.039535f,-0.073950f,-0.014220f,-0.050788f,-0.045085f,0.062421f,-0.003890f,
0.028778f,-0.092188f,0.039743f,0.011539f,-0.025349f,-0.026588f,0.019561f,0.017010f,
-0.089062f,-0.116910f,-0.009323f,-0.009457f,-0.018565f,-0.019066f,0.000901f,-0.006381f,
0.049338f,-0.069924f,-0.042575f,0.045251f,0.063470f,-0.025068f,-0.024882f,-0.062300f,
-0.038376f,0.021578f,0.098631f,0.116521f,-0.009394f,-0.045658f,-0.028277f,-0.008321f,
0.115374f,-0.179602f,-0.102169f,-0.014947f,-0.008051f,-0.017764f,0.009956f,0.031885f,
0.064266f,-0.058833f,0.009214f,0.086835f,0.003740f,-0.047221f,-0.042477f,-0.013127f,
-0.068181f,0.021989f,0.078210f,0.018653f,0.091582f,0.017727f,-0.021978f,-0.044224f,
-0.034417f,-0.014190f,-0.029880f,-0.036620f,-0.003250f,-0.078685f,-0.069871f,-0.085845f,
0.013294f,0.167142f,-0.083463f,-0.079391f,-0.073780f,-0.025466f,0.014503f,0.107403f,
0.044972f,0.057233f,0.044554f,0.033639f,0.032547f,-0.033666f,-0.056586f,-0.041665f,
-0.118169f,-0.023292f,-0.034804f,-0.073427f,0.023584f,-0.018665f,0.170248f,0.092724f,
-0.034946f,-0.023490f,0.014517f,0.039524f,-0.020561f,-0.045643f,0.015239f,-0.025806f,
-0.009435f,-0.006427f,-0.029187f,0.049593f,-0.151332f,-0.012681f,-0.012379f,0.075063f,
-0.073761f,-0.069440f,0.086013f,0.059426f,-0.005777f,-0.038676f,0.059146f,-0.046302f,
-0.104186f,-0.008487f,0.109299f,0.119465f,-0.099900f,0.030888f,-0.065947f,0.046731f,
-0.014861f,-0.076646f,0.039116f,0.019378f,-0.043105f,-0.099017f,-0.002305f,-0.000735f,
-0.022661f,-0.006305f,-0.024104f,-0.012844f,-0.034010f,0.029737f,0.159797f,0.045478f,
-0.137101f,0.076800f,-0.081507f,0.009255f,-0.076393f,-0.005220f,0.084280f,0.031817f,
0.032227f,0.117447f,0.001806f,-0.001920f,0.076399f,-0.023019f,-0.105496f,-0.017460f,
-0.000299f,0.099613f,0.120104f,-0.017573f,-0.054644f,0.083339f,-0.059521f,0.031302f,
-0.108894f,-0.051354f,-0.103167f,0.003010f,-0.082812f,0.033543f,-0.079009f,-0.057203f,
-0.029077f,0.065413f,0.001023f,0.127551f,0.065303f,0.043917f,0.026623f,0.120245f,
0.074148f,0.136554f,0.065057f,-0.011637f,-0.132649f,0.011623f,-0.026988f,-0.053451f,
0.078102f,-0.026499f,-0.016944f,-0.149781f,0.009734f,-0.074143f,0.080562f,0.071954f,
-0.059252f,-0.058680f,-0.090648f,0.108759f,-0.074287f,-0.025674f,0.011131f,0.062383f,
-0.047687f,0.054863f,-0.110636f,0.015849f,-0.031144f,0.020753f,-0.019221f,-0.046206f,
-0.066443f,0.077958f,0.010232f,0.005896f,0.039392f,-0.001570f,-0.056370f,0.040641f,
-0.026926f,-0.017854f,0.089625f,-0.036081f,-0.029392f,-0.014602f,0.031058f,-0.137432f,
-0.113552f,0.098125f,-0.165787f,0.044344f,0.037345f,0.008295f,-0.061278f,-0.001512f,
0.090113f,-0.083749f,0.003876f,0.067486f,-0.107164f,-0.105201f,0.117945f,-0.006935f,
-0.121919f,0.112760f,0.006811f,-0.080248f,0.052777f,-0.003574f,0.051921f,-0.107910f,
0.038660f,-0.029342f,-0.046805f,0.031583f,0.066176f,-0.037798f,0.008005f,0.064035f,
0.024238f,-0.137310f,-0.034910f,-0.013325f,-0.111849f,0.004528f,-0.036968f,0.047280f,
-0.068499f,-0.097807f,-0.110943f,0.067257f,-0.025106f,0.054835f,-0.031115f,-0.105241f,
-0.038205f,0.033679f,-0.048516f,0.023604f,-0.004476f,-0.113762f,-0.034957f,0.086712f,
-0.005600f,0.064434f,-0.031812f,-0.029234f,-0.009627f,-0.011900f,-0.003058f,0.043505f,
0.065002f,0.045816f,-0.028460f,-0.001920f,0.046815f,-0.082600f,-0.126800f,0.008302f,
-0.081040f,0.061839f,-0.017086f,-0.063479f,-0.045413f,0.039553f,-0.090617f,-0.032989f,
-0.044717f,-0.119409f,-0.040220f,-0.022560f,-0.026426f,-0.097703f,-0.015625f,-0.015427f,
0.001423f,-0.018307f,0.051322f,-0.000486f,0.055502f,-0.007656f,-0.070982f,0.066855f,
0.139824f,0.083316f,-0.111744f,-0.067602f,0.013704f,-0.022942f,0.085191f,-0.024668f,
-0.018176f,0.085348f,0.131427f,-0.065562f,-0.005050f,0.073348f,0.090252f,0.079592f,
0.043156f,-0.080301f,-0.115282f,0.050808f,0.086038f,0.023894f,-0.094224f,-0.073920f,
0.014790f,-0.005341f,-0.042716f,0.076856f,0.063608f,0.093540f,-0.002807f,-0.092270f,
0.038466f,-0.006029f,-0.012221f,0.043124f,0.024506f,0.116054f,-0.090402f,0.000615f,
-0.126830f,0.105208f,0.058985f,-0.137555f,0.051576f,-0.088592f,0.009071f,-0.083876f
};
const float conv1d_1_bias[16] = { 0.007223f, -0.038028f, -0.005276f, -0.017210f, -0.033424f, -0.033156f, 0.009776f, 0.014243f, 0.068717f, 0.041945f, -0.045665f, -0.031136f, 0.003660f, 0.033619f, 0.024131f, -0.000805f };
const float dense_kernel[96] = {
  -0.026419f, -0.121467f, 0.063258f, -0.014005f, 0.329680f, 0.007575f,
  -0.038769f, -0.074248f, 0.096694f, -0.050008f, 0.113369f, 0.199034f,
  0.143520f, -0.080455f, -0.316533f, -0.069206f, -0.162702f, -0.060672f,
  -0.157338f, 0.222761f, 0.069702f, -0.087183f, -0.028548f, 0.105805f,
  0.073313f, -0.168677f, -0.008507f, 0.084088f, 0.088296f, -0.113387f,
  -0.067507f, 0.222665f, 0.139942f, -0.145350f, 0.359547f, -0.125038f,
  -0.313255f, 0.096071f, -0.060936f, -0.018236f, 0.029957f, 0.087969f,
  0.199172f, 0.137429f, -0.316329f, -0.076163f, 0.008601f, 0.056379f,
  -0.070340f, 0.067444f, -0.069016f, -0.109186f, -0.212500f, -0.129005f,
  0.111156f, 0.007596f, 0.089740f, 0.088620f, -0.119177f, -0.029506f,
  -0.024209f, -0.064810f, 0.104955f, 0.011394f, -0.128278f, 0.059924f,
  -0.132626f, 0.049363f, -0.073381f, -0.152201f, -0.038187f, 0.056269f,
  -0.047870f, 0.054656f, 0.062670f, -0.173673f, -0.061160f, 0.059590f,
  0.014151f, -0.031228f, -0.057742f, 0.054752f, -0.011789f, 0.101129f,
  -0.042387f, 0.066545f, -0.100265f, -0.043691f, -0.215416f, -0.043007f,
  0.047572f, 0.186930f, -0.070323f, 0.082519f, -0.007553f, 0.160950f,
};
const float dense_bias[6] = { 0.031625f, 0.102056f, -0.014432f, -0.029884f, -0.067851f, -0.031019f };

const char *HAR_ClassNames[] = {
    "walking", "upstairs", "downstairs", "sitting", "standing", "laying"
};
